digraph Tree {
node [shape=box] ;
0 [label="time_duration (secs) <= 69.0\nentropy = 0.446\nsamples = 105778\nvalue = [95965, 9813]\nclass = 0"] ;
1 [label="entropy = 0.0\nsamples = 5225\nvalue = [0, 5225]\nclass = 1"] ;
0 -> 1 [labeldistance=2.5, labelangle=45, headlabel="True"] ;
2 [label="num_unique_users_for_device <= 1.5\nentropy = 0.268\nsamples = 100553\nvalue = [95965, 4588]\nclass = 0"] ;
0 -> 2 [labeldistance=2.5, labelangle=-45, headlabel="False"] ;
3 [label="time_duration (secs) <= 8746898.0\nentropy = 0.197\nsamples = 92316\nvalue = [89502, 2814]\nclass = 0"] ;
2 -> 3 ;
4 [label="time_duration (secs) <= 8724725.0\nentropy = 0.193\nsamples = 77783\nvalue = [75470, 2313]\nclass = 0"] ;
3 -> 4 ;
5 [label="purchase_value <= 101.5\nentropy = 0.193\nsamples = 77585\nvalue = [75272, 2313]\nclass = 0"] ;
4 -> 5 ;
6 [label="country_Malta <= 0.5\nentropy = 0.194\nsamples = 77459\nvalue = [75146, 2313]\nclass = 0"] ;
5 -> 6 ;
7 [label="time_duration (secs) <= 8724704.5\nentropy = 0.194\nsamples = 77445\nvalue = [75135, 2310]\nclass = 0"] ;
6 -> 7 ;
8 [label="purchase_value <= 76.5\nentropy = 0.193\nsamples = 77444\nvalue = [75135, 2309]\nclass = 0"] ;
7 -> 8 ;
9 [label="country_Japan <= 0.5\nentropy = 0.192\nsamples = 75419\nvalue = [73189, 2230]\nclass = 0"] ;
8 -> 9 ;
10 [label="age <= 29.5\nentropy = 0.194\nsamples = 71781\nvalue = [69636, 2145]\nclass = 0"] ;
9 -> 10 ;
11 [label="entropy = 0.203\nsamples = 26637\nvalue = [25791, 846]\nclass = 0"] ;
10 -> 11 ;
12 [label="entropy = 0.188\nsamples = 45144\nvalue = [43845, 1299]\nclass = 0"] ;
10 -> 12 ;
13 [label="time_duration (secs) <= 7206663.0\nentropy = 0.16\nsamples = 3638\nvalue = [3553, 85]\nclass = 0"] ;
9 -> 13 ;
14 [label="entropy = 0.176\nsamples = 2965\nvalue = [2887, 78]\nclass = 0"] ;
13 -> 14 ;
15 [label="entropy = 0.083\nsamples = 673\nvalue = [666, 7]\nclass = 0"] ;
13 -> 15 ;
16 [label="country_Bolivia <= 0.5\nentropy = 0.238\nsamples = 2025\nvalue = [1946, 79]\nclass = 0"] ;
8 -> 16 ;
17 [label="country_Japan <= 0.5\nentropy = 0.236\nsamples = 2024\nvalue = [1946, 78]\nclass = 0"] ;
16 -> 17 ;
18 [label="entropy = 0.221\nsamples = 1914\nvalue = [1846, 68]\nclass = 0"] ;
17 -> 18 ;
19 [label="entropy = 0.439\nsamples = 110\nvalue = [100, 10]\nclass = 0"] ;
17 -> 19 ;
20 [label="entropy = 0.0\nsamples = 1\nvalue = [0, 1]\nclass = 1"] ;
16 -> 20 ;
21 [label="entropy = 0.0\nsamples = 1\nvalue = [0, 1]\nclass = 1"] ;
7 -> 21 ;
22 [label="time_duration (secs) <= 5520885.5\nentropy = 0.75\nsamples = 14\nvalue = [11, 3]\nclass = 0"] ;
6 -> 22 ;
23 [label="time_duration (secs) <= 1404337.5\nentropy = 0.469\nsamples = 10\nvalue = [9, 1]\nclass = 0"] ;
22 -> 23 ;
24 [label="browser_IE <= 0.5\nentropy = 1.0\nsamples = 2\nvalue = [1, 1]\nclass = 0"] ;
23 -> 24 ;
25 [label="entropy = 0.0\nsamples = 1\nvalue = [1, 0]\nclass = 0"] ;
24 -> 25 ;
26 [label="entropy = 0.0\nsamples = 1\nvalue = [0, 1]\nclass = 1"] ;
24 -> 26 ;
27 [label="entropy = 0.0\nsamples = 8\nvalue = [8, 0]\nclass = 0"] ;
23 -> 27 ;
28 [label="age <= 33.0\nentropy = 1.0\nsamples = 4\nvalue = [2, 2]\nclass = 0"] ;
22 -> 28 ;
29 [label="entropy = 0.0\nsamples = 2\nvalue = [0, 2]\nclass = 1"] ;
28 -> 29 ;
30 [label="entropy = 0.0\nsamples = 2\nvalue = [2, 0]\nclass = 0"] ;
28 -> 30 ;
31 [label="entropy = 0.0\nsamples = 126\nvalue = [126, 0]\nclass = 0"] ;
5 -> 31 ;
32 [label="entropy = 0.0\nsamples = 198\nvalue = [198, 0]\nclass = 0"] ;
4 -> 32 ;
33 [label="time_duration (secs) <= 8747156.5\nentropy = 0.216\nsamples = 14533\nvalue = [14032, 501]\nclass = 0"] ;
3 -> 33 ;
34 [label="entropy = 0.0\nsamples = 2\nvalue = [0, 2]\nclass = 1"] ;
33 -> 34 ;
35 [label="time_duration (secs) <= 9266518.0\nentropy = 0.216\nsamples = 14531\nvalue = [14032, 499]\nclass = 0"] ;
33 -> 35 ;
36 [label="age <= 43.5\nentropy = 0.249\nsamples = 4657\nvalue = [4464, 193]\nclass = 0"] ;
35 -> 36 ;
37 [label="country_Argentina <= 0.5\nentropy = 0.263\nsamples = 4066\nvalue = [3885, 181]\nclass = 0"] ;
36 -> 37 ;
38 [label="age <= 39.5\nentropy = 0.258\nsamples = 4043\nvalue = [3867, 176]\nclass = 0"] ;
37 -> 38 ;
39 [label="country_Bangladesh <= 0.5\nentropy = 0.242\nsamples = 3573\nvalue = [3430, 143]\nclass = 0"] ;
38 -> 39 ;
40 [label="time_duration (secs) <= 9266392.5\nentropy = 0.241\nsamples = 3572\nvalue = [3430, 142]\nclass = 0"] ;
39 -> 40 ;
41 [label="entropy = 0.24\nsamples = 3571\nvalue = [3430, 141]\nclass = 0"] ;
40 -> 41 ;
42 [label="entropy = 0.0\nsamples = 1\nvalue = [0, 1]\nclass = 1"] ;
40 -> 42 ;
43 [label="entropy = 0.0\nsamples = 1\nvalue = [0, 1]\nclass = 1"] ;
39 -> 43 ;
44 [label="browser_Chrome <= 0.5\nentropy = 0.367\nsamples = 470\nvalue = [437, 33]\nclass = 0"] ;
38 -> 44 ;
45 [label="source_Direct <= 0.5\nentropy = 0.292\nsamples = 273\nvalue = [259, 14]\nclass = 0"] ;
44 -> 45 ;
46 [label="entropy = 0.351\nsamples = 212\nvalue = [198, 14]\nclass = 0"] ;
45 -> 46 ;
47 [label="entropy = 0.0\nsamples = 61\nvalue = [61, 0]\nclass = 0"] ;
45 -> 47 ;
48 [label="time_duration (secs) <= 9179737.0\nentropy = 0.458\nsamples = 197\nvalue = [178, 19]\nclass = 0"] ;
44 -> 48 ;
49 [label="entropy = 0.522\nsamples = 162\nvalue = [143, 19]\nclass = 0"] ;
48 -> 49 ;
50 [label="entropy = 0.0\nsamples = 35\nvalue = [35, 0]\nclass = 0"] ;
48 -> 50 ;
51 [label="purchase_value <= 42.5\nentropy = 0.755\nsamples = 23\nvalue = [18, 5]\nclass = 0"] ;
37 -> 51 ;
52 [label="time_duration (secs) <= 9161543.5\nentropy = 0.896\nsamples = 16\nvalue = [11, 5]\nclass = 0"] ;
51 -> 52 ;
53 [label="age <= 37.5\nentropy = 0.98\nsamples = 12\nvalue = [7, 5]\nclass = 0"] ;
52 -> 53 ;
54 [label="entropy = 0.881\nsamples = 10\nvalue = [7, 3]\nclass = 0"] ;
53 -> 54 ;
55 [label="entropy = 0.0\nsamples = 2\nvalue = [0, 2]\nclass = 1"] ;
53 -> 55 ;
56 [label="entropy = 0.0\nsamples = 4\nvalue = [4, 0]\nclass = 0"] ;
52 -> 56 ;
57 [label="entropy = 0.0\nsamples = 7\nvalue = [7, 0]\nclass = 0"] ;
51 -> 57 ;
58 [label="age <= 67.5\nentropy = 0.143\nsamples = 591\nvalue = [579, 12]\nclass = 0"] ;
36 -> 58 ;
59 [label="purchase_value <= 37.5\nentropy = 0.134\nsamples = 590\nvalue = [579, 11]\nclass = 0"] ;
58 -> 59 ;
60 [label="country_Sweden <= 0.5\nentropy = 0.189\nsamples = 345\nvalue = [335, 10]\nclass = 0"] ;
59 -> 60 ;
61 [label="source_Ads <= 0.5\nentropy = 0.176\nsamples = 341\nvalue = [332, 9]\nclass = 0"] ;
60 -> 61 ;
62 [label="entropy = 0.108\nsamples = 210\nvalue = [207, 3]\nclass = 0"] ;
61 -> 62 ;
63 [label="entropy = 0.268\nsamples = 131\nvalue = [125, 6]\nclass = 0"] ;
61 -> 63 ;
64 [label="age <= 46.5\nentropy = 0.811\nsamples = 4\nvalue = [3, 1]\nclass = 0"] ;
60 -> 64 ;
65 [label="entropy = 0.0\nsamples = 3\nvalue = [3, 0]\nclass = 0"] ;
64 -> 65 ;
66 [label="entropy = 0.0\nsamples = 1\nvalue = [0, 1]\nclass = 1"] ;
64 -> 66 ;
67 [label="country_Japan <= 0.5\nentropy = 0.038\nsamples = 245\nvalue = [244, 1]\nclass = 0"] ;
59 -> 67 ;
68 [label="entropy = 0.0\nsamples = 231\nvalue = [231, 0]\nclass = 0"] ;
67 -> 68 ;
69 [label="browser_FireFox <= 0.5\nentropy = 0.371\nsamples = 14\nvalue = [13, 1]\nclass = 0"] ;
67 -> 69 ;
70 [label="entropy = 0.0\nsamples = 10\nvalue = [10, 0]\nclass = 0"] ;
69 -> 70 ;
71 [label="entropy = 0.811\nsamples = 4\nvalue = [3, 1]\nclass = 0"] ;
69 -> 71 ;
72 [label="entropy = 0.0\nsamples = 1\nvalue = [0, 1]\nclass = 1"] ;
58 -> 72 ;
73 [label="age <= 61.5\nentropy = 0.199\nsamples = 9874\nvalue = [9568, 306]\nclass = 0"] ;
35 -> 73 ;
74 [label="country_Belgium <= 0.5\nentropy = 0.198\nsamples = 9859\nvalue = [9556, 303]\nclass = 0"] ;
73 -> 74 ;
75 [label="country_Iceland <= 0.5\nentropy = 0.197\nsamples = 9826\nvalue = [9527, 299]\nclass = 0"] ;
74 -> 75 ;
76 [label="browser_Opera <= 0.5\nentropy = 0.196\nsamples = 9824\nvalue = [9526, 298]\nclass = 0"] ;
75 -> 76 ;
77 [label="purchase_value <= 37.5\nentropy = 0.198\nsamples = 9574\nvalue = [9279, 295]\nclass = 0"] ;
76 -> 77 ;
78 [label="entropy = 0.215\nsamples = 5284\nvalue = [5103, 181]\nclass = 0"] ;
77 -> 78 ;
79 [label="entropy = 0.177\nsamples = 4290\nvalue = [4176, 114]\nclass = 0"] ;
77 -> 79 ;
80 [label="purchase_value <= 39.5\nentropy = 0.094\nsamples = 250\nvalue = [247, 3]\nclass = 0"] ;
76 -> 80 ;
81 [label="entropy = 0.0\nsamples = 153\nvalue = [153, 0]\nclass = 0"] ;
80 -> 81 ;
82 [label="entropy = 0.199\nsamples = 97\nvalue = [94, 3]\nclass = 0"] ;
80 -> 82 ;
83 [label="time_duration (secs) <= 10011868.0\nentropy = 1.0\nsamples = 2\nvalue = [1, 1]\nclass = 0"] ;
75 -> 83 ;
84 [label="entropy = 0.0\nsamples = 1\nvalue = [1, 0]\nclass = 0"] ;
83 -> 84 ;
85 [label="entropy = 0.0\nsamples = 1\nvalue = [0, 1]\nclass = 1"] ;
83 -> 85 ;
86 [label="time_duration (secs) <= 9877368.5\nentropy = 0.533\nsamples = 33\nvalue = [29, 4]\nclass = 0"] ;
74 -> 86 ;
87 [label="time_duration (secs) <= 9798750.5\nentropy = 0.837\nsamples = 15\nvalue = [11, 4]\nclass = 0"] ;
86 -> 87 ;
88 [label="time_duration (secs) <= 9335808.0\nentropy = 0.619\nsamples = 13\nvalue = [11, 2]\nclass = 0"] ;
87 -> 88 ;
89 [label="entropy = 0.918\nsamples = 3\nvalue = [1, 2]\nclass = 1"] ;
88 -> 89 ;
90 [label="entropy = 0.0\nsamples = 10\nvalue = [10, 0]\nclass = 0"] ;
88 -> 90 ;
91 [label="entropy = 0.0\nsamples = 2\nvalue = [0, 2]\nclass = 1"] ;
87 -> 91 ;
92 [label="entropy = 0.0\nsamples = 18\nvalue = [18, 0]\nclass = 0"] ;
86 -> 92 ;
93 [label="purchase_value <= 36.5\nentropy = 0.722\nsamples = 15\nvalue = [12, 3]\nclass = 0"] ;
73 -> 93 ;
94 [label="time_duration (secs) <= 9839010.0\nentropy = 1.0\nsamples = 6\nvalue = [3, 3]\nclass = 0"] ;
93 -> 94 ;
95 [label="entropy = 0.0\nsamples = 2\nvalue = [2, 0]\nclass = 0"] ;
94 -> 95 ;
96 [label="country_Korea Republic of <= 0.5\nentropy = 0.811\nsamples = 4\nvalue = [1, 3]\nclass = 1"] ;
94 -> 96 ;
97 [label="entropy = 0.0\nsamples = 3\nvalue = [0, 3]\nclass = 1"] ;
96 -> 97 ;
98 [label="entropy = 0.0\nsamples = 1\nvalue = [1, 0]\nclass = 0"] ;
96 -> 98 ;
99 [label="entropy = 0.0\nsamples = 9\nvalue = [9, 0]\nclass = 0"] ;
93 -> 99 ;
100 [label="num_unique_users_for_device <= 4.5\nentropy = 0.752\nsamples = 8237\nvalue = [6463, 1774]\nclass = 0"] ;
2 -> 100 ;
101 [label="source_Direct <= 0.5\nentropy = 0.774\nsamples = 7651\nvalue = [5907, 1744]\nclass = 0"] ;
100 -> 101 ;
102 [label="purchase_value <= 48.5\nentropy = 0.72\nsamples = 6166\nvalue = [4940, 1226]\nclass = 0"] ;
101 -> 102 ;
103 [label="country_Canada <= 0.5\nentropy = 0.704\nsamples = 4615\nvalue = [3733, 882]\nclass = 0"] ;
102 -> 103 ;
104 [label="country_Paraguay <= 0.5\nentropy = 0.708\nsamples = 4532\nvalue = [3657, 875]\nclass = 0"] ;
103 -> 104 ;
105 [label="time_duration (secs) <= 67299.5\nentropy = 0.707\nsamples = 4530\nvalue = [3657, 873]\nclass = 0"] ;
104 -> 105 ;
106 [label="time_duration (secs) <= 31912.5\nentropy = 0.954\nsamples = 32\nvalue = [20, 12]\nclass = 0"] ;
105 -> 106 ;
107 [label="time_duration (secs) <= 4088.5\nentropy = 0.592\nsamples = 14\nvalue = [12, 2]\nclass = 0"] ;
106 -> 107 ;
108 [label="entropy = 0.918\nsamples = 3\nvalue = [1, 2]\nclass = 1"] ;
107 -> 108 ;
109 [label="entropy = 0.0\nsamples = 11\nvalue = [11, 0]\nclass = 0"] ;
107 -> 109 ;
110 [label="time_duration (secs) <= 40048.5\nentropy = 0.991\nsamples = 18\nvalue = [8, 10]\nclass = 1"] ;
106 -> 110 ;
111 [label="entropy = 0.0\nsamples = 3\nvalue = [0, 3]\nclass = 1"] ;
110 -> 111 ;
112 [label="entropy = 0.997\nsamples = 15\nvalue = [8, 7]\nclass = 0"] ;
110 -> 112 ;
113 [label="time_duration (secs) <= 106827.0\nentropy = 0.704\nsamples = 4498\nvalue = [3637, 861]\nclass = 0"] ;
105 -> 113 ;
114 [label="entropy = 0.0\nsamples = 13\nvalue = [13, 0]\nclass = 0"] ;
113 -> 114 ;
115 [label="time_duration (secs) <= 108213.5\nentropy = 0.706\nsamples = 4485\nvalue = [3624, 861]\nclass = 0"] ;
113 -> 115 ;
116 [label="entropy = 0.0\nsamples = 2\nvalue = [0, 2]\nclass = 1"] ;
115 -> 116 ;
117 [label="entropy = 0.705\nsamples = 4483\nvalue = [3624, 859]\nclass = 0"] ;
115 -> 117 ;
118 [label="entropy = 0.0\nsamples = 2\nvalue = [0, 2]\nclass = 1"] ;
104 -> 118 ;
119 [label="purchase_value <= 26.0\nentropy = 0.417\nsamples = 83\nvalue = [76, 7]\nclass = 0"] ;
103 -> 119 ;
120 [label="time_duration (secs) <= 7315217.0\nentropy = 0.661\nsamples = 35\nvalue = [29, 6]\nclass = 0"] ;
119 -> 120 ;
121 [label="time_duration (secs) <= 6588841.0\nentropy = 0.779\nsamples = 26\nvalue = [20, 6]\nclass = 0"] ;
120 -> 121 ;
122 [label="browser_Chrome <= 0.5\nentropy = 0.65\nsamples = 24\nvalue = [20, 4]\nclass = 0"] ;
121 -> 122 ;
123 [label="entropy = 0.0\nsamples = 13\nvalue = [13, 0]\nclass = 0"] ;
122 -> 123 ;
124 [label="entropy = 0.946\nsamples = 11\nvalue = [7, 4]\nclass = 0"] ;
122 -> 124 ;
125 [label="entropy = 0.0\nsamples = 2\nvalue = [0, 2]\nclass = 1"] ;
121 -> 125 ;
126 [label="entropy = 0.0\nsamples = 9\nvalue = [9, 0]\nclass = 0"] ;
120 -> 126 ;
127 [label="time_duration (secs) <= 1015180.5\nentropy = 0.146\nsamples = 48\nvalue = [47, 1]\nclass = 0"] ;
119 -> 127 ;
128 [label="source_SEO <= 0.5\nentropy = 1.0\nsamples = 2\nvalue = [1, 1]\nclass = 0"] ;
127 -> 128 ;
129 [label="entropy = 0.0\nsamples = 1\nvalue = [0, 1]\nclass = 1"] ;
128 -> 129 ;
130 [label="entropy = 0.0\nsamples = 1\nvalue = [1, 0]\nclass = 0"] ;
128 -> 130 ;
131 [label="entropy = 0.0\nsamples = 46\nvalue = [46, 0]\nclass = 0"] ;
127 -> 131 ;
132 [label="age <= 45.5\nentropy = 0.763\nsamples = 1551\nvalue = [1207, 344]\nclass = 0"] ;
102 -> 132 ;
133 [label="purchase_value <= 70.5\nentropy = 0.743\nsamples = 1439\nvalue = [1136, 303]\nclass = 0"] ;
132 -> 133 ;
134 [label="country_Hong Kong <= 0.5\nentropy = 0.769\nsamples = 1152\nvalue = [893, 259]\nclass = 0"] ;
133 -> 134 ;
135 [label="browser_IE <= 0.5\nentropy = 0.765\nsamples = 1146\nvalue = [891, 255]\nclass = 0"] ;
134 -> 135 ;
136 [label="country_Sweden <= 0.5\nentropy = 0.734\nsamples = 874\nvalue = [694, 180]\nclass = 0"] ;
135 -> 136 ;
137 [label="entropy = 0.724\nsamples = 865\nvalue = [691, 174]\nclass = 0"] ;
136 -> 137 ;
138 [label="entropy = 0.918\nsamples = 9\nvalue = [3, 6]\nclass = 1"] ;
136 -> 138 ;
139 [label="country_United Kingdom <= 0.5\nentropy = 0.85\nsamples = 272\nvalue = [197, 75]\nclass = 0"] ;
135 -> 139 ;
140 [label="entropy = 0.828\nsamples = 261\nvalue = [193, 68]\nclass = 0"] ;
139 -> 140 ;
141 [label="entropy = 0.946\nsamples = 11\nvalue = [4, 7]\nclass = 1"] ;
139 -> 141 ;
142 [label="browser_IE <= 0.5\nentropy = 0.918\nsamples = 6\nvalue = [2, 4]\nclass = 1"] ;
134 -> 142 ;
143 [label="entropy = 0.0\nsamples = 4\nvalue = [0, 4]\nclass = 1"] ;
142 -> 143 ;
144 [label="entropy = 0.0\nsamples = 2\nvalue = [2, 0]\nclass = 0"] ;
142 -> 144 ;
145 [label="country_Croatia (LOCAL Name: Hrvatska) <= 0.5\nentropy = 0.618\nsamples = 287\nvalue = [243, 44]\nclass = 0"] ;
133 -> 145 ;
146 [label="country_Australia <= 0.5\nentropy = 0.611\nsamples = 286\nvalue = [243, 43]\nclass = 0"] ;
145 -> 146 ;
147 [label="country_Slovakia (SLOVAK Republic) <= 0.5\nentropy = 0.603\nsamples = 285\nvalue = [243, 42]\nclass = 0"] ;
146 -> 147 ;
148 [label="entropy = 0.596\nsamples = 284\nvalue = [243, 41]\nclass = 0"] ;
147 -> 148 ;
149 [label="entropy = 0.0\nsamples = 1\nvalue = [0, 1]\nclass = 1"] ;
147 -> 149 ;
150 [label="entropy = 0.0\nsamples = 1\nvalue = [0, 1]\nclass = 1"] ;
146 -> 150 ;
151 [label="entropy = 0.0\nsamples = 1\nvalue = [0, 1]\nclass = 1"] ;
145 -> 151 ;
152 [label="purchase_value <= 67.5\nentropy = 0.948\nsamples = 112\nvalue = [71, 41]\nclass = 0"] ;
132 -> 152 ;
153 [label="country_China <= 0.5\nentropy = 0.984\nsamples = 87\nvalue = [50, 37]\nclass = 0"] ;
152 -> 153 ;
154 [label="country_Korea Republic of <= 0.5\nentropy = 0.993\nsamples = 82\nvalue = [45, 37]\nclass = 0"] ;
153 -> 154 ;
155 [label="age <= 52.5\nentropy = 0.986\nsamples = 79\nvalue = [45, 34]\nclass = 0"] ;
154 -> 155 ;
156 [label="entropy = 0.999\nsamples = 62\nvalue = [32, 30]\nclass = 0"] ;
155 -> 156 ;
157 [label="entropy = 0.787\nsamples = 17\nvalue = [13, 4]\nclass = 0"] ;
155 -> 157 ;
158 [label="entropy = 0.0\nsamples = 3\nvalue = [0, 3]\nclass = 1"] ;
154 -> 158 ;
159 [label="entropy = 0.0\nsamples = 5\nvalue = [5, 0]\nclass = 0"] ;
153 -> 159 ;
160 [label="country_United States <= 0.5\nentropy = 0.634\nsamples = 25\nvalue = [21, 4]\nclass = 0"] ;
152 -> 160 ;
161 [label="age <= 46.5\nentropy = 0.31\nsamples = 18\nvalue = [17, 1]\nclass = 0"] ;
160 -> 161 ;
162 [label="source_Ads <= 0.5\nentropy = 0.918\nsamples = 3\nvalue = [2, 1]\nclass = 0"] ;
161 -> 162 ;
163 [label="entropy = 0.0\nsamples = 2\nvalue = [2, 0]\nclass = 0"] ;
162 -> 163 ;
164 [label="entropy = 0.0\nsamples = 1\nvalue = [0, 1]\nclass = 1"] ;
162 -> 164 ;
165 [label="entropy = 0.0\nsamples = 15\nvalue = [15, 0]\nclass = 0"] ;
161 -> 165 ;
166 [label="age <= 46.5\nentropy = 0.985\nsamples = 7\nvalue = [4, 3]\nclass = 0"] ;
160 -> 166 ;
167 [label="entropy = 0.0\nsamples = 3\nvalue = [3, 0]\nclass = 0"] ;
166 -> 167 ;
168 [label="purchase_value <= 84.0\nentropy = 0.811\nsamples = 4\nvalue = [1, 3]\nclass = 1"] ;
166 -> 168 ;
169 [label="entropy = 0.0\nsamples = 2\nvalue = [0, 2]\nclass = 1"] ;
168 -> 169 ;
170 [label="entropy = 1.0\nsamples = 2\nvalue = [1, 1]\nclass = 0"] ;
168 -> 170 ;
171 [label="country_Chile <= 0.5\nentropy = 0.933\nsamples = 1485\nvalue = [967, 518]\nclass = 0"] ;
101 -> 171 ;
172 [label="sex_M <= 0.5\nentropy = 0.932\nsamples = 1482\nvalue = [967, 515]\nclass = 0"] ;
171 -> 172 ;
173 [label="country_Colombia <= 0.5\nentropy = 0.9\nsamples = 623\nvalue = [426, 197]\nclass = 0"] ;
172 -> 173 ;
174 [label="country_Thailand <= 0.5\nentropy = 0.896\nsamples = 620\nvalue = [426, 194]\nclass = 0"] ;
173 -> 174 ;
175 [label="country_Belgium <= 0.5\nentropy = 0.894\nsamples = 618\nvalue = [426, 192]\nclass = 0"] ;
174 -> 175 ;
176 [label="purchase_value <= 38.5\nentropy = 0.891\nsamples = 616\nvalue = [426, 190]\nclass = 0"] ;
175 -> 176 ;
177 [label="entropy = 0.924\nsamples = 383\nvalue = [253, 130]\nclass = 0"] ;
176 -> 177 ;
178 [label="entropy = 0.823\nsamples = 233\nvalue = [173, 60]\nclass = 0"] ;
176 -> 178 ;
179 [label="entropy = 0.0\nsamples = 2\nvalue = [0, 2]\nclass = 1"] ;
175 -> 179 ;
180 [label="entropy = 0.0\nsamples = 2\nvalue = [0, 2]\nclass = 1"] ;
174 -> 180 ;
181 [label="entropy = 0.0\nsamples = 3\nvalue = [0, 3]\nclass = 1"] ;
173 -> 181 ;
182 [label="time_duration (secs) <= 36723.0\nentropy = 0.951\nsamples = 859\nvalue = [541, 318]\nclass = 0"] ;
172 -> 182 ;
183 [label="entropy = 0.0\nsamples = 3\nvalue = [0, 3]\nclass = 1"] ;
182 -> 183 ;
184 [label="time_duration (secs) <= 99639.5\nentropy = 0.949\nsamples = 856\nvalue = [541, 315]\nclass = 0"] ;
182 -> 184 ;
185 [label="entropy = 0.0\nsamples = 6\nvalue = [6, 0]\nclass = 0"] ;
184 -> 185 ;
186 [label="age <= 48.5\nentropy = 0.951\nsamples = 850\nvalue = [535, 315]\nclass = 0"] ;
184 -> 186 ;
187 [label="browser_Opera <= 0.5\nentropy = 0.957\nsamples = 815\nvalue = [507, 308]\nclass = 0"] ;
186 -> 187 ;
188 [label="entropy = 0.961\nsamples = 788\nvalue = [485, 303]\nclass = 0"] ;
187 -> 188 ;
189 [label="entropy = 0.691\nsamples = 27\nvalue = [22, 5]\nclass = 0"] ;
187 -> 189 ;
190 [label="time_duration (secs) <= 7353219.0\nentropy = 0.722\nsamples = 35\nvalue = [28, 7]\nclass = 0"] ;
186 -> 190 ;
191 [label="entropy = 0.84\nsamples = 26\nvalue = [19, 7]\nclass = 0"] ;
190 -> 191 ;
192 [label="entropy = 0.0\nsamples = 9\nvalue = [9, 0]\nclass = 0"] ;
190 -> 192 ;
193 [label="entropy = 0.0\nsamples = 3\nvalue = [0, 3]\nclass = 1"] ;
171 -> 193 ;
194 [label="age <= 50.5\nentropy = 0.291\nsamples = 586\nvalue = [556, 30]\nclass = 0"] ;
100 -> 194 ;
195 [label="time_duration (secs) <= 1201722.5\nentropy = 0.264\nsamples = 558\nvalue = [533, 25]\nclass = 0"] ;
194 -> 195 ;
196 [label="time_duration (secs) <= 1003648.0\nentropy = 0.528\nsamples = 67\nvalue = [59, 8]\nclass = 0"] ;
195 -> 196 ;
197 [label="time_duration (secs) <= 91075.5\nentropy = 0.232\nsamples = 53\nvalue = [51, 2]\nclass = 0"] ;
196 -> 197 ;
198 [label="sex_M <= 0.5\nentropy = 0.811\nsamples = 8\nvalue = [6, 2]\nclass = 0"] ;
197 -> 198 ;
199 [label="entropy = 0.0\nsamples = 5\nvalue = [5, 0]\nclass = 0"] ;
198 -> 199 ;
200 [label="country_Russian Federation <= 0.5\nentropy = 0.918\nsamples = 3\nvalue = [1, 2]\nclass = 1"] ;
198 -> 200 ;
201 [label="entropy = 0.0\nsamples = 2\nvalue = [0, 2]\nclass = 1"] ;
200 -> 201 ;
202 [label="entropy = 0.0\nsamples = 1\nvalue = [1, 0]\nclass = 0"] ;
200 -> 202 ;
203 [label="entropy = 0.0\nsamples = 45\nvalue = [45, 0]\nclass = 0"] ;
197 -> 203 ;
204 [label="time_duration (secs) <= 1034300.5\nentropy = 0.985\nsamples = 14\nvalue = [8, 6]\nclass = 0"] ;
196 -> 204 ;
205 [label="entropy = 0.0\nsamples = 3\nvalue = [0, 3]\nclass = 1"] ;
204 -> 205 ;
206 [label="sex_F <= 0.5\nentropy = 0.845\nsamples = 11\nvalue = [8, 3]\nclass = 0"] ;
204 -> 206 ;
207 [label="entropy = 0.0\nsamples = 4\nvalue = [4, 0]\nclass = 0"] ;
206 -> 207 ;
208 [label="purchase_value <= 25.5\nentropy = 0.985\nsamples = 7\nvalue = [4, 3]\nclass = 0"] ;
206 -> 208 ;
209 [label="entropy = 0.0\nsamples = 3\nvalue = [3, 0]\nclass = 0"] ;
208 -> 209 ;
210 [label="age <= 38.5\nentropy = 0.811\nsamples = 4\nvalue = [1, 3]\nclass = 1"] ;
208 -> 210 ;
211 [label="entropy = 0.0\nsamples = 3\nvalue = [0, 3]\nclass = 1"] ;
210 -> 211 ;
212 [label="entropy = 0.0\nsamples = 1\nvalue = [1, 0]\nclass = 0"] ;
210 -> 212 ;
213 [label="purchase_value <= 41.5\nentropy = 0.217\nsamples = 491\nvalue = [474, 17]\nclass = 0"] ;
195 -> 213 ;
214 [label="purchase_value <= 31.5\nentropy = 0.293\nsamples = 311\nvalue = [295, 16]\nclass = 0"] ;
213 -> 214 ;
215 [label="num_unique_users_for_device <= 10.5\nentropy = 0.189\nsamples = 208\nvalue = [202, 6]\nclass = 0"] ;
214 -> 215 ;
216 [label="entropy = 0.0\nsamples = 89\nvalue = [89, 0]\nclass = 0"] ;
215 -> 216 ;
217 [label="num_unique_users_for_device <= 13.5\nentropy = 0.288\nsamples = 119\nvalue = [113, 6]\nclass = 0"] ;
215 -> 217 ;
218 [label="country_Indonesia <= 0.5\nentropy = 0.435\nsamples = 67\nvalue = [61, 6]\nclass = 0"] ;
217 -> 218 ;
219 [label="entropy = 0.387\nsamples = 66\nvalue = [61, 5]\nclass = 0"] ;
218 -> 219 ;
220 [label="entropy = 0.0\nsamples = 1\nvalue = [0, 1]\nclass = 1"] ;
218 -> 220 ;
221 [label="entropy = 0.0\nsamples = 52\nvalue = [52, 0]\nclass = 0"] ;
217 -> 221 ;
222 [label="age <= 26.5\nentropy = 0.46\nsamples = 103\nvalue = [93, 10]\nclass = 0"] ;
214 -> 222 ;
223 [label="time_duration (secs) <= 4010579.0\nentropy = 0.852\nsamples = 18\nvalue = [13, 5]\nclass = 0"] ;
222 -> 223 ;
224 [label="entropy = 0.0\nsamples = 4\nvalue = [4, 0]\nclass = 0"] ;
223 -> 224 ;
225 [label="time_duration (secs) <= 4238167.0\nentropy = 0.94\nsamples = 14\nvalue = [9, 5]\nclass = 0"] ;
223 -> 225 ;
226 [label="entropy = 0.0\nsamples = 1\nvalue = [0, 1]\nclass = 1"] ;
225 -> 226 ;
227 [label="entropy = 0.89\nsamples = 13\nvalue = [9, 4]\nclass = 0"] ;
225 -> 227 ;
228 [label="country_Australia <= 0.5\nentropy = 0.323\nsamples = 85\nvalue = [80, 5]\nclass = 0"] ;
222 -> 228 ;
229 [label="country_Finland <= 0.5\nentropy = 0.276\nsamples = 84\nvalue = [80, 4]\nclass = 0"] ;
228 -> 229 ;
230 [label="entropy = 0.224\nsamples = 83\nvalue = [80, 3]\nclass = 0"] ;
229 -> 230 ;
231 [label="entropy = 0.0\nsamples = 1\nvalue = [0, 1]\nclass = 1"] ;
229 -> 231 ;
232 [label="entropy = 0.0\nsamples = 1\nvalue = [0, 1]\nclass = 1"] ;
228 -> 232 ;
233 [label="num_unique_users_for_device <= 19.5\nentropy = 0.05\nsamples = 180\nvalue = [179, 1]\nclass = 0"] ;
213 -> 233 ;
234 [label="entropy = 0.0\nsamples = 178\nvalue = [178, 0]\nclass = 0"] ;
233 -> 234 ;
235 [label="browser_IE <= 0.5\nentropy = 1.0\nsamples = 2\nvalue = [1, 1]\nclass = 0"] ;
233 -> 235 ;
236 [label="entropy = 0.0\nsamples = 1\nvalue = [0, 1]\nclass = 1"] ;
235 -> 236 ;
237 [label="entropy = 0.0\nsamples = 1\nvalue = [1, 0]\nclass = 0"] ;
235 -> 237 ;
238 [label="age <= 52.5\nentropy = 0.677\nsamples = 28\nvalue = [23, 5]\nclass = 0"] ;
194 -> 238 ;
239 [label="purchase_value <= 27.5\nentropy = 1.0\nsamples = 8\nvalue = [4, 4]\nclass = 0"] ;
238 -> 239 ;
240 [label="purchase_value <= 9.5\nentropy = 0.722\nsamples = 5\nvalue = [4, 1]\nclass = 0"] ;
239 -> 240 ;
241 [label="entropy = 0.0\nsamples = 1\nvalue = [0, 1]\nclass = 1"] ;
240 -> 241 ;
242 [label="entropy = 0.0\nsamples = 4\nvalue = [4, 0]\nclass = 0"] ;
240 -> 242 ;
243 [label="entropy = 0.0\nsamples = 3\nvalue = [0, 3]\nclass = 1"] ;
239 -> 243 ;
244 [label="country_Netherlands <= 0.5\nentropy = 0.286\nsamples = 20\nvalue = [19, 1]\nclass = 0"] ;
238 -> 244 ;
245 [label="entropy = 0.0\nsamples = 19\nvalue = [19, 0]\nclass = 0"] ;
244 -> 245 ;
246 [label="entropy = 0.0\nsamples = 1\nvalue = [0, 1]\nclass = 1"] ;
244 -> 246 ;
}